digraph Tree {
node [shape=box, style="filled", color="black", fontname="helvetica"] ;
edge [fontname="helvetica"] ;
0 [label="! <= 0.0\ngini = 0.5\nsamples = 3796\nvalue = [1898, 1898]\nclass = Non spam", fillcolor="#ffffff"] ;
1 [label="remove <= 0.002\ngini = 0.26\nsamples = 1592\nvalue = [1348, 244]\nclass = Non spam", fillcolor="#ea985d"] ;
0 -> 1 [labeldistance=2.5, labelangle=45, headlabel="True"] ;
2 [label="$ <= 0.029\ngini = 0.2\nsamples = 1505\nvalue = [1335, 170]\nclass = Non spam", fillcolor="#e89152"] ;
1 -> 2 ;
3 [label="free <= 0.006\ngini = 0.16\nsamples = 1445\nvalue = [1318, 127]\nclass = Non spam", fillcolor="#e88d4c"] ;
2 -> 3 ;
4 [label="font <= 0.089\ngini = 0.123\nsamples = 1341\nvalue = [1253, 88]\nclass = Non spam", fillcolor="#e78a47"] ;
3 -> 4 ;
5 [label="hp <= 0.001\ngini = 0.118\nsamples = 1337\nvalue = [1253, 84]\nclass = Non spam", fillcolor="#e78946"] ;
4 -> 5 ;
6 [label="650 <= 0.003\ngini = 0.176\nsamples = 809\nvalue = [730, 79]\nclass = Non spam", fillcolor="#e88f4e"] ;
5 -> 6 ;
7 [label="capital_run_length_longest <= 0.001\ngini = 0.142\nsamples = 780\nvalue = [720, 60]\nclass = Non spam", fillcolor="#e78c49"] ;
6 -> 7 ;
8 [label="you <= 0.658\ngini = 0.072\nsamples = 537\nvalue = [517, 20]\nclass = Non spam", fillcolor="#e68641"] ;
7 -> 8 ;
9 [label="free <= 0.0\ngini = 0.065\nsamples = 534\nvalue = [516, 18]\nclass = Non spam", fillcolor="#e68540"] ;
8 -> 9 ;
10 [label="internet <= 0.765\ngini = 0.062\nsamples = 533\nvalue = [516, 17]\nclass = Non spam", fillcolor="#e68540"] ;
9 -> 10 ;
11 [label="receive <= 0.056\ngini = 0.058\nsamples = 532\nvalue = [516, 16]\nclass = Non spam", fillcolor="#e6853f"] ;
10 -> 11 ;
12 [label="your <= 0.447\ngini = 0.052\nsamples = 528\nvalue = [514, 14]\nclass = Non spam", fillcolor="#e6843e"] ;
11 -> 12 ;
13 [label="our <= 0.741\ngini = 0.045\nsamples = 520\nvalue = [508, 12]\nclass = Non spam", fillcolor="#e6843e"] ;
12 -> 13 ;
14 [label="email <= 0.209\ngini = 0.042\nsamples = 517\nvalue = [506, 11]\nclass = Non spam", fillcolor="#e6843d"] ;
13 -> 14 ;
15 [label="technology <= 0.173\ngini = 0.038\nsamples = 511\nvalue = [501, 10]\nclass = Non spam", fillcolor="#e6843d"] ;
14 -> 15 ;
16 [label="capital_run_length_average <= 0.0\ngini = 0.035\nsamples = 505\nvalue = [496, 9]\nclass = Non spam", fillcolor="#e5833d"] ;
15 -> 16 ;
17 [label="capital_run_length_longest <= 0.0\ngini = 0.061\nsamples = 221\nvalue = [214, 7]\nclass = Non spam", fillcolor="#e6853f"] ;
16 -> 17 ;
18 [label="capital_run_length_average <= 0.0\ngini = 0.045\nsamples = 218\nvalue = [213, 5]\nclass = Non spam", fillcolor="#e6843e"] ;
17 -> 18 ;
19 [label="capital_run_length_average <= 0.0\ngini = 0.037\nsamples = 213\nvalue = [209, 4]\nclass = Non spam", fillcolor="#e5833d"] ;
18 -> 19 ;
20 [label="capital_run_length_average <= 0.0\ngini = 0.063\nsamples = 122\nvalue = [118, 4]\nclass = Non spam", fillcolor="#e68540"] ;
19 -> 20 ;
21 [label="capital_run_length_average <= 0.0\ngini = 0.048\nsamples = 121\nvalue = [118, 3]\nclass = Non spam", fillcolor="#e6843e"] ;
20 -> 21 ;
22 [label="capital_run_length_total <= 0.0\ngini = 0.034\nsamples = 117\nvalue = [115, 2]\nclass = Non spam", fillcolor="#e5833c"] ;
21 -> 22 ;
23 [label="capital_run_length_total <= 0.0\ngini = 0.062\nsamples = 62\nvalue = [60, 2]\nclass = Non spam", fillcolor="#e68540"] ;
22 -> 23 ;
24 [label="gini = 0.0\nsamples = 24\nvalue = [24, 0]\nclass = Non spam", fillcolor="#e58139"] ;
23 -> 24 ;
25 [label="you <= 0.248\ngini = 0.1\nsamples = 38\nvalue = [36, 2]\nclass = Non spam", fillcolor="#e68844"] ;
23 -> 25 ;
26 [label="capital_run_length_total <= 0.0\ngini = 0.061\nsamples = 32\nvalue = [31, 1]\nclass = Non spam", fillcolor="#e6853f"] ;
25 -> 26 ;
27 [label="gini = 0.0\nsamples = 19\nvalue = [19, 0]\nclass = Non spam", fillcolor="#e58139"] ;
26 -> 27 ;
28 [label="george <= 0.062\ngini = 0.142\nsamples = 13\nvalue = [12, 1]\nclass = Non spam", fillcolor="#e78c49"] ;
26 -> 28 ;
29 [label="you <= 0.078\ngini = 0.198\nsamples = 9\nvalue = [8, 1]\nclass = Non spam", fillcolor="#e89152"] ;
28 -> 29 ;
30 [label="edu <= 0.071\ngini = 0.278\nsamples = 6\nvalue = [5, 1]\nclass = Non spam", fillcolor="#ea9a61"] ;
29 -> 30 ;
31 [label="mail <= 0.119\ngini = 0.375\nsamples = 4\nvalue = [3, 1]\nclass = Non spam", fillcolor="#eeab7b"] ;
30 -> 31 ;
32 [label="re <= 0.188\ngini = 0.444\nsamples = 3\nvalue = [2, 1]\nclass = Non spam", fillcolor="#f2c09c"] ;
31 -> 32 ;
33 [label="meeting <= 0.184\ngini = 0.5\nsamples = 2\nvalue = [1, 1]\nclass = Non spam", fillcolor="#ffffff"] ;
32 -> 33 ;
34 [label="gini = 0.0\nsamples = 1\nvalue = [0, 1]\nclass = Spam", fillcolor="#399de5"] ;
33 -> 34 ;
35 [label="gini = 0.0\nsamples = 1\nvalue = [1, 0]\nclass = Non spam", fillcolor="#e58139"] ;
33 -> 35 ;
36 [label="gini = 0.0\nsamples = 1\nvalue = [1, 0]\nclass = Non spam", fillcolor="#e58139"] ;
32 -> 36 ;
37 [label="gini = 0.0\nsamples = 1\nvalue = [1, 0]\nclass = Non spam", fillcolor="#e58139"] ;
31 -> 37 ;
38 [label="gini = 0.0\nsamples = 2\nvalue = [2, 0]\nclass = Non spam", fillcolor="#e58139"] ;
30 -> 38 ;
39 [label="gini = 0.0\nsamples = 3\nvalue = [3, 0]\nclass = Non spam", fillcolor="#e58139"] ;
29 -> 39 ;
40 [label="gini = 0.0\nsamples = 4\nvalue = [4, 0]\nclass = Non spam", fillcolor="#e58139"] ;
28 -> 40 ;
41 [label="capital_run_length_total <= 0.0\ngini = 0.278\nsamples = 6\nvalue = [5, 1]\nclass = Non spam", fillcolor="#ea9a61"] ;
25 -> 41 ;
42 [label="gini = 0.0\nsamples = 1\nvalue = [0, 1]\nclass = Spam", fillcolor="#399de5"] ;
41 -> 42 ;
43 [label="gini = 0.0\nsamples = 5\nvalue = [5, 0]\nclass = Non spam", fillcolor="#e58139"] ;
41 -> 43 ;
44 [label="gini = 0.0\nsamples = 55\nvalue = [55, 0]\nclass = Non spam", fillcolor="#e58139"] ;
22 -> 44 ;
45 [label="capital_run_length_total <= 0.001\ngini = 0.375\nsamples = 4\nvalue = [3, 1]\nclass = Non spam", fillcolor="#eeab7b"] ;
21 -> 45 ;
46 [label="gini = 0.0\nsamples = 1\nvalue = [0, 1]\nclass = Spam", fillcolor="#399de5"] ;
45 -> 46 ;
47 [label="gini = 0.0\nsamples = 3\nvalue = [3, 0]\nclass = Non spam", fillcolor="#e58139"] ;
45 -> 47 ;
48 [label="gini = 0.0\nsamples = 1\nvalue = [0, 1]\nclass = Spam", fillcolor="#399de5"] ;
20 -> 48 ;
49 [label="gini = 0.0\nsamples = 91\nvalue = [91, 0]\nclass = Non spam", fillcolor="#e58139"] ;
19 -> 49 ;
50 [label="you <= 0.019\ngini = 0.32\nsamples = 5\nvalue = [4, 1]\nclass = Non spam", fillcolor="#eca06a"] ;
18 -> 50 ;
51 [label="gini = 0.0\nsamples = 1\nvalue = [0, 1]\nclass = Spam", fillcolor="#399de5"] ;
50 -> 51 ;
52 [label="gini = 0.0\nsamples = 4\nvalue = [4, 0]\nclass = Non spam", fillcolor="#e58139"] ;
50 -> 52 ;
53 [label="( <= 0.016\ngini = 0.444\nsamples = 3\nvalue = [1, 2]\nclass = Spam", fillcolor="#9ccef2"] ;
17 -> 53 ;
54 [label="gini = 0.0\nsamples = 1\nvalue = [1, 0]\nclass = Non spam", fillcolor="#e58139"] ;
53 -> 54 ;
55 [label="gini = 0.0\nsamples = 2\nvalue = [0, 2]\nclass = Spam", fillcolor="#399de5"] ;
53 -> 55 ;
56 [label="capital_run_length_total <= 0.001\ngini = 0.014\nsamples = 284\nvalue = [282, 2]\nclass = Non spam", fillcolor="#e5823a"] ;
16 -> 56 ;
57 [label="will <= 0.088\ngini = 0.038\nsamples = 104\nvalue = [102, 2]\nclass = Non spam", fillcolor="#e6833d"] ;
56 -> 57 ;
58 [label="capital_run_length_longest <= 0.001\ngini = 0.02\nsamples = 97\nvalue = [96, 1]\nclass = Non spam", fillcolor="#e5823b"] ;
57 -> 58 ;
59 [label="gini = 0.0\nsamples = 87\nvalue = [87, 0]\nclass = Non spam", fillcolor="#e58139"] ;
58 -> 59 ;
60 [label="capital_run_length_longest <= 0.001\ngini = 0.18\nsamples = 10\nvalue = [9, 1]\nclass = Non spam", fillcolor="#e88f4f"] ;
58 -> 60 ;
61 [label="gini = 0.0\nsamples = 1\nvalue = [0, 1]\nclass = Spam", fillcolor="#399de5"] ;
60 -> 61 ;
62 [label="gini = 0.0\nsamples = 9\nvalue = [9, 0]\nclass = Non spam", fillcolor="#e58139"] ;
60 -> 62 ;
63 [label="capital_run_length_total <= 0.001\ngini = 0.245\nsamples = 7\nvalue = [6, 1]\nclass = Non spam", fillcolor="#e9965a"] ;
57 -> 63 ;
64 [label="gini = 0.0\nsamples = 6\nvalue = [6, 0]\nclass = Non spam", fillcolor="#e58139"] ;
63 -> 64 ;
65 [label="gini = 0.0\nsamples = 1\nvalue = [0, 1]\nclass = Spam", fillcolor="#399de5"] ;
63 -> 65 ;
66 [label="gini = 0.0\nsamples = 180\nvalue = [180, 0]\nclass = Non spam", fillcolor="#e58139"] ;
56 -> 66 ;
67 [label="your <= 0.109\ngini = 0.278\nsamples = 6\nvalue = [5, 1]\nclass = Non spam", fillcolor="#ea9a61"] ;
15 -> 67 ;
68 [label="gini = 0.0\nsamples = 5\nvalue = [5, 0]\nclass = Non spam", fillcolor="#e58139"] ;
67 -> 68 ;
69 [label="gini = 0.0\nsamples = 1\nvalue = [0, 1]\nclass = Spam", fillcolor="#399de5"] ;
67 -> 69 ;
70 [label="your <= 0.086\ngini = 0.278\nsamples = 6\nvalue = [5, 1]\nclass = Non spam", fillcolor="#ea9a61"] ;
14 -> 70 ;
71 [label="gini = 0.0\nsamples = 5\nvalue = [5, 0]\nclass = Non spam", fillcolor="#e58139"] ;
70 -> 71 ;
72 [label="gini = 0.0\nsamples = 1\nvalue = [0, 1]\nclass = Spam", fillcolor="#399de5"] ;
70 -> 72 ;
73 [label="our <= 0.801\ngini = 0.444\nsamples = 3\nvalue = [2, 1]\nclass = Non spam", fillcolor="#f2c09c"] ;
13 -> 73 ;
74 [label="gini = 0.0\nsamples = 1\nvalue = [0, 1]\nclass = Spam", fillcolor="#399de5"] ;
73 -> 74 ;
75 [label="gini = 0.0\nsamples = 2\nvalue = [2, 0]\nclass = Non spam", fillcolor="#e58139"] ;
73 -> 75 ;
76 [label="your <= 0.558\ngini = 0.375\nsamples = 8\nvalue = [6, 2]\nclass = Non spam", fillcolor="#eeab7b"] ;
12 -> 76 ;
77 [label="you <= 0.104\ngini = 0.444\nsamples = 3\nvalue = [1, 2]\nclass = Spam", fillcolor="#9ccef2"] ;
76 -> 77 ;
78 [label="gini = 0.0\nsamples = 1\nvalue = [1, 0]\nclass = Non spam", fillcolor="#e58139"] ;
77 -> 78 ;
79 [label="gini = 0.0\nsamples = 2\nvalue = [0, 2]\nclass = Spam", fillcolor="#399de5"] ;
77 -> 79 ;
80 [label="gini = 0.0\nsamples = 5\nvalue = [5, 0]\nclass = Non spam", fillcolor="#e58139"] ;
76 -> 80 ;
81 [label="george <= 0.008\ngini = 0.5\nsamples = 4\nvalue = [2, 2]\nclass = Non spam", fillcolor="#ffffff"] ;
11 -> 81 ;
82 [label="gini = 0.0\nsamples = 2\nvalue = [0, 2]\nclass = Spam", fillcolor="#399de5"] ;
81 -> 82 ;
83 [label="gini = 0.0\nsamples = 2\nvalue = [2, 0]\nclass = Non spam", fillcolor="#e58139"] ;
81 -> 83 ;
84 [label="gini = 0.0\nsamples = 1\nvalue = [0, 1]\nclass = Spam", fillcolor="#399de5"] ;
10 -> 84 ;
85 [label="gini = 0.0\nsamples = 1\nvalue = [0, 1]\nclass = Spam", fillcolor="#399de5"] ;
9 -> 85 ;
86 [label="re <= 0.188\ngini = 0.444\nsamples = 3\nvalue = [1, 2]\nclass = Spam", fillcolor="#9ccef2"] ;
8 -> 86 ;
87 [label="gini = 0.0\nsamples = 2\nvalue = [0, 2]\nclass = Spam", fillcolor="#399de5"] ;
86 -> 87 ;
88 [label="gini = 0.0\nsamples = 1\nvalue = [1, 0]\nclass = Non spam", fillcolor="#e58139"] ;
86 -> 88 ;
89 [label="over <= 0.095\ngini = 0.275\nsamples = 243\nvalue = [203, 40]\nclass = Non spam", fillcolor="#ea9a60"] ;
7 -> 89 ;
90 [label="our <= 0.073\ngini = 0.236\nsamples = 234\nvalue = [202, 32]\nclass = Non spam", fillcolor="#e99558"] ;
89 -> 90 ;
91 [label="money <= 0.003\ngini = 0.191\nsamples = 224\nvalue = [200, 24]\nclass = Non spam", fillcolor="#e89051"] ;
90 -> 91 ;
92 [label="you <= 0.384\ngini = 0.159\nsamples = 218\nvalue = [199, 19]\nclass = Non spam", fillcolor="#e78d4c"] ;
91 -> 92 ;
93 [label="technology <= 0.1\ngini = 0.131\nsamples = 212\nvalue = [197, 15]\nclass = Non spam", fillcolor="#e78b48"] ;
92 -> 93 ;
94 [label="000 <= 0.189\ngini = 0.116\nsamples = 210\nvalue = [197, 13]\nclass = Non spam", fillcolor="#e78946"] ;
93 -> 94 ;
95 [label="make <= 0.372\ngini = 0.108\nsamples = 209\nvalue = [197, 12]\nclass = Non spam", fillcolor="#e78945"] ;
94 -> 95 ;
96 [label="capital_run_length_longest <= 0.001\ngini = 0.1\nsamples = 208\nvalue = [197, 11]\nclass = Non spam", fillcolor="#e68844"] ;
95 -> 96 ;
97 [label="gini = 0.0\nsamples = 1\nvalue = [0, 1]\nclass = Spam", fillcolor="#399de5"] ;
96 -> 97 ;
98 [label="email <= 0.207\ngini = 0.092\nsamples = 207\nvalue = [197, 10]\nclass = Non spam", fillcolor="#e68743"] ;
96 -> 98 ;
99 [label="capital_run_length_total <= 0.002\ngini = 0.084\nsamples = 205\nvalue = [196, 9]\nclass = Non spam", fillcolor="#e68742"] ;
98 -> 99 ;
100 [label="( <= 0.045\ngini = 0.375\nsamples = 8\nvalue = [6, 2]\nclass = Non spam", fillcolor="#eeab7b"] ;
99 -> 100 ;
101 [label="you <= 0.209\ngini = 0.245\nsamples = 7\nvalue = [6, 1]\nclass = Non spam", fillcolor="#e9965a"] ;
100 -> 101 ;
102 [label="gini = 0.0\nsamples = 5\nvalue = [5, 0]\nclass = Non spam", fillcolor="#e58139"] ;
101 -> 102 ;
103 [label="capital_run_length_longest <= 0.001\ngini = 0.5\nsamples = 2\nvalue = [1, 1]\nclass = Non spam", fillcolor="#ffffff"] ;
101 -> 103 ;
104 [label="gini = 0.0\nsamples = 1\nvalue = [1, 0]\nclass = Non spam", fillcolor="#e58139"] ;
103 -> 104 ;
105 [label="gini = 0.0\nsamples = 1\nvalue = [0, 1]\nclass = Spam", fillcolor="#399de5"] ;
103 -> 105 ;
106 [label="gini = 0.0\nsamples = 1\nvalue = [0, 1]\nclass = Spam", fillcolor="#399de5"] ;
100 -> 106 ;
107 [label="mail <= 0.184\ngini = 0.069\nsamples = 197\nvalue = [190, 7]\nclass = Non spam", fillcolor="#e68640"] ;
99 -> 107 ;
108 [label="your <= 0.18\ngini = 0.06\nsamples = 194\nvalue = [188, 6]\nclass = Non spam", fillcolor="#e6853f"] ;
107 -> 108 ;
109 [label="capital_run_length_longest <= 0.003\ngini = 0.043\nsamples = 182\nvalue = [178, 4]\nclass = Non spam", fillcolor="#e6843d"] ;
108 -> 109 ;
110 [label="gini = 0.0\nsamples = 133\nvalue = [133, 0]\nclass = Non spam", fillcolor="#e58139"] ;
109 -> 110 ;
111 [label="report <= 0.08\ngini = 0.15\nsamples = 49\nvalue = [45, 4]\nclass = Non spam", fillcolor="#e78c4b"] ;
109 -> 111 ;
112 [label="capital_run_length_longest <= 0.003\ngini = 0.117\nsamples = 48\nvalue = [45, 3]\nclass = Non spam", fillcolor="#e78946"] ;
111 -> 112 ;
113 [label="capital_run_length_average <= 0.002\ngini = 0.469\nsamples = 8\nvalue = [5, 3]\nclass = Non spam", fillcolor="#f5cdb0"] ;
112 -> 113 ;
114 [label="gini = 0.0\nsamples = 3\nvalue = [0, 3]\nclass = Spam", fillcolor="#399de5"] ;
113 -> 114 ;
115 [label="gini = 0.0\nsamples = 5\nvalue = [5, 0]\nclass = Non spam", fillcolor="#e58139"] ;
113 -> 115 ;
116 [label="gini = 0.0\nsamples = 40\nvalue = [40, 0]\nclass = Non spam", fillcolor="#e58139"] ;
112 -> 116 ;
117 [label="gini = 0.0\nsamples = 1\nvalue = [0, 1]\nclass = Spam", fillcolor="#399de5"] ;
111 -> 117 ;
118 [label="you <= 0.16\ngini = 0.278\nsamples = 12\nvalue = [10, 2]\nclass = Non spam", fillcolor="#ea9a61"] ;
108 -> 118 ;
119 [label="gini = 0.0\nsamples = 9\nvalue = [9, 0]\nclass = Non spam", fillcolor="#e58139"] ;
118 -> 119 ;
120 [label="your <= 0.216\ngini = 0.444\nsamples = 3\nvalue = [1, 2]\nclass = Spam", fillcolor="#9ccef2"] ;
118 -> 120 ;
121 [label="gini = 0.0\nsamples = 2\nvalue = [0, 2]\nclass = Spam", fillcolor="#399de5"] ;
120 -> 121 ;
122 [label="gini = 0.0\nsamples = 1\nvalue = [1, 0]\nclass = Non spam", fillcolor="#e58139"] ;
120 -> 122 ;
123 [label="mail <= 0.258\ngini = 0.444\nsamples = 3\nvalue = [2, 1]\nclass = Non spam", fillcolor="#f2c09c"] ;
107 -> 123 ;
124 [label="gini = 0.0\nsamples = 1\nvalue = [0, 1]\nclass = Spam", fillcolor="#399de5"] ;
123 -> 124 ;
125 [label="gini = 0.0\nsamples = 2\nvalue = [2, 0]\nclass = Non spam", fillcolor="#e58139"] ;
123 -> 125 ;
126 [label="george <= 0.067\ngini = 0.5\nsamples = 2\nvalue = [1, 1]\nclass = Non spam", fillcolor="#ffffff"] ;
98 -> 126 ;
127 [label="gini = 0.0\nsamples = 1\nvalue = [0, 1]\nclass = Spam", fillcolor="#399de5"] ;
126 -> 127 ;
128 [label="gini = 0.0\nsamples = 1\nvalue = [1, 0]\nclass = Non spam", fillcolor="#e58139"] ;
126 -> 128 ;
129 [label="gini = 0.0\nsamples = 1\nvalue = [0, 1]\nclass = Spam", fillcolor="#399de5"] ;
95 -> 129 ;
130 [label="gini = 0.0\nsamples = 1\nvalue = [0, 1]\nclass = Spam", fillcolor="#399de5"] ;
94 -> 130 ;
131 [label="gini = 0.0\nsamples = 2\nvalue = [0, 2]\nclass = Spam", fillcolor="#399de5"] ;
93 -> 131 ;
132 [label="address <= 0.062\ngini = 0.444\nsamples = 6\nvalue = [2, 4]\nclass = Spam", fillcolor="#9ccef2"] ;
92 -> 132 ;
133 [label="gini = 0.0\nsamples = 4\nvalue = [0, 4]\nclass = Spam", fillcolor="#399de5"] ;
132 -> 133 ;
134 [label="gini = 0.0\nsamples = 2\nvalue = [2, 0]\nclass = Non spam", fillcolor="#e58139"] ;
132 -> 134 ;
135 [label="( <= 0.018\ngini = 0.278\nsamples = 6\nvalue = [1, 5]\nclass = Spam", fillcolor="#61b1ea"] ;
91 -> 135 ;
136 [label="gini = 0.0\nsamples = 5\nvalue = [0, 5]\nclass = Spam", fillcolor="#399de5"] ;
135 -> 136 ;
137 [label="gini = 0.0\nsamples = 1\nvalue = [1, 0]\nclass = Non spam", fillcolor="#e58139"] ;
135 -> 137 ;
138 [label="george <= 0.011\ngini = 0.32\nsamples = 10\nvalue = [2, 8]\nclass = Spam", fillcolor="#6ab6ec"] ;
90 -> 138 ;
139 [label="gini = 0.0\nsamples = 8\nvalue = [0, 8]\nclass = Spam", fillcolor="#399de5"] ;
138 -> 139 ;
140 [label="gini = 0.0\nsamples = 2\nvalue = [2, 0]\nclass = Non spam", fillcolor="#e58139"] ;
138 -> 140 ;
141 [label="edu <= 0.056\ngini = 0.198\nsamples = 9\nvalue = [1, 8]\nclass = Spam", fillcolor="#52a9e8"] ;
89 -> 141 ;
142 [label="gini = 0.0\nsamples = 8\nvalue = [0, 8]\nclass = Spam", fillcolor="#399de5"] ;
141 -> 142 ;
143 [label="gini = 0.0\nsamples = 1\nvalue = [1, 0]\nclass = Non spam", fillcolor="#e58139"] ;
141 -> 143 ;
144 [label="capital_run_length_longest <= 0.002\ngini = 0.452\nsamples = 29\nvalue = [10, 19]\nclass = Spam", fillcolor="#a1d1f3"] ;
6 -> 144 ;
145 [label="650 <= 0.108\ngini = 0.426\nsamples = 13\nvalue = [9, 4]\nclass = Non spam", fillcolor="#f1b991"] ;
144 -> 145 ;
146 [label="pm <= 0.007\ngini = 0.375\nsamples = 4\nvalue = [1, 3]\nclass = Spam", fillcolor="#7bbeee"] ;
145 -> 146 ;
147 [label="gini = 0.0\nsamples = 3\nvalue = [0, 3]\nclass = Spam", fillcolor="#399de5"] ;
146 -> 147 ;
148 [label="gini = 0.0\nsamples = 1\nvalue = [1, 0]\nclass = Non spam", fillcolor="#e58139"] ;
146 -> 148 ;
149 [label="edu <= 0.095\ngini = 0.198\nsamples = 9\nvalue = [8, 1]\nclass = Non spam", fillcolor="#e89152"] ;
145 -> 149 ;
150 [label="gini = 0.0\nsamples = 8\nvalue = [8, 0]\nclass = Non spam", fillcolor="#e58139"] ;
149 -> 150 ;
151 [label="gini = 0.0\nsamples = 1\nvalue = [0, 1]\nclass = Spam", fillcolor="#399de5"] ;
149 -> 151 ;
152 [label="make <= 0.083\ngini = 0.117\nsamples = 16\nvalue = [1, 15]\nclass = Spam", fillcolor="#46a4e7"] ;
144 -> 152 ;
153 [label="gini = 0.0\nsamples = 15\nvalue = [0, 15]\nclass = Spam", fillcolor="#399de5"] ;
152 -> 153 ;
154 [label="gini = 0.0\nsamples = 1\nvalue = [1, 0]\nclass = Non spam", fillcolor="#e58139"] ;
152 -> 154 ;
155 [label="receive <= 0.377\ngini = 0.019\nsamples = 528\nvalue = [523, 5]\nclass = Non spam", fillcolor="#e5823b"] ;
5 -> 155 ;
156 [label="; <= 0.063\ngini = 0.011\nsamples = 526\nvalue = [523, 3]\nclass = Non spam", fillcolor="#e5823a"] ;
155 -> 156 ;
157 [label="data <= 0.119\ngini = 0.008\nsamples = 509\nvalue = [507, 2]\nclass = Non spam", fillcolor="#e5813a"] ;
156 -> 157 ;
158 [label="project <= 0.019\ngini = 0.004\nsamples = 486\nvalue = [485, 1]\nclass = Non spam", fillcolor="#e58139"] ;
157 -> 158 ;
159 [label="gini = 0.0\nsamples = 456\nvalue = [456, 0]\nclass = Non spam", fillcolor="#e58139"] ;
158 -> 159 ;
160 [label="project <= 0.021\ngini = 0.064\nsamples = 30\nvalue = [29, 1]\nclass = Non spam", fillcolor="#e68540"] ;
158 -> 160 ;
161 [label="gini = 0.0\nsamples = 1\nvalue = [0, 1]\nclass = Spam", fillcolor="#399de5"] ;
160 -> 161 ;
162 [label="gini = 0.0\nsamples = 29\nvalue = [29, 0]\nclass = Non spam", fillcolor="#e58139"] ;
160 -> 162 ;
163 [label="data <= 0.125\ngini = 0.083\nsamples = 23\nvalue = [22, 1]\nclass = Non spam", fillcolor="#e68742"] ;
157 -> 163 ;
164 [label="gini = 0.0\nsamples = 1\nvalue = [0, 1]\nclass = Spam", fillcolor="#399de5"] ;
163 -> 164 ;
165 [label="gini = 0.0\nsamples = 22\nvalue = [22, 0]\nclass = Non spam", fillcolor="#e58139"] ;
163 -> 165 ;
166 [label="report <= 0.005\ngini = 0.111\nsamples = 17\nvalue = [16, 1]\nclass = Non spam", fillcolor="#e78945"] ;
156 -> 166 ;
167 [label="gini = 0.0\nsamples = 15\nvalue = [15, 0]\nclass = Non spam", fillcolor="#e58139"] ;
166 -> 167 ;
168 [label="gini = 0.5\nsamples = 2\nvalue = [1, 1]\nclass = Non spam", fillcolor="#ffffff"] ;
166 -> 168 ;
169 [label="gini = 0.0\nsamples = 2\nvalue = [0, 2]\nclass = Spam", fillcolor="#399de5"] ;
155 -> 169 ;
170 [label="gini = 0.0\nsamples = 4\nvalue = [0, 4]\nclass = Spam", fillcolor="#399de5"] ;
4 -> 170 ;
171 [label="hp <= 0.005\ngini = 0.469\nsamples = 104\nvalue = [65, 39]\nclass = Non spam", fillcolor="#f5cdb0"] ;
3 -> 171 ;
172 [label="capital_run_length_total <= 0.008\ngini = 0.5\nsamples = 77\nvalue = [39, 38]\nclass = Non spam", fillcolor="#fefcfa"] ;
171 -> 172 ;
173 [label="our <= 0.105\ngini = 0.411\nsamples = 45\nvalue = [32, 13]\nclass = Non spam", fillcolor="#f0b489"] ;
172 -> 173 ;
174 [label="receive <= 0.048\ngini = 0.284\nsamples = 35\nvalue = [29, 6]\nclass = Non spam", fillcolor="#ea9b62"] ;
173 -> 174 ;
175 [label="your <= 0.471\ngini = 0.213\nsamples = 33\nvalue = [29, 4]\nclass = Non spam", fillcolor="#e99254"] ;
174 -> 175 ;
176 [label="business <= 0.326\ngini = 0.17\nsamples = 32\nvalue = [29, 3]\nclass = Non spam", fillcolor="#e88e4d"] ;
175 -> 176 ;
177 [label="will <= 0.152\ngini = 0.121\nsamples = 31\nvalue = [29, 2]\nclass = Non spam", fillcolor="#e78a47"] ;
176 -> 177 ;
178 [label="gini = 0.0\nsamples = 24\nvalue = [24, 0]\nclass = Non spam", fillcolor="#e58139"] ;
177 -> 178 ;
179 [label="will <= 0.185\ngini = 0.408\nsamples = 7\nvalue = [5, 2]\nclass = Non spam", fillcolor="#efb388"] ;
177 -> 179 ;
180 [label="email <= 0.072\ngini = 0.444\nsamples = 3\nvalue = [1, 2]\nclass = Spam", fillcolor="#9ccef2"] ;
179 -> 180 ;
181 [label="gini = 0.0\nsamples = 2\nvalue = [0, 2]\nclass = Spam", fillcolor="#399de5"] ;
180 -> 181 ;
182 [label="gini = 0.0\nsamples = 1\nvalue = [1, 0]\nclass = Non spam", fillcolor="#e58139"] ;
180 -> 182 ;
183 [label="gini = 0.0\nsamples = 4\nvalue = [4, 0]\nclass = Non spam", fillcolor="#e58139"] ;
179 -> 183 ;
184 [label="gini = 0.0\nsamples = 1\nvalue = [0, 1]\nclass = Spam", fillcolor="#399de5"] ;
176 -> 184 ;
185 [label="gini = 0.0\nsamples = 1\nvalue = [0, 1]\nclass = Spam", fillcolor="#399de5"] ;
175 -> 185 ;
186 [label="gini = 0.0\nsamples = 2\nvalue = [0, 2]\nclass = Spam", fillcolor="#399de5"] ;
174 -> 186 ;
187 [label="you <= 0.066\ngini = 0.42\nsamples = 10\nvalue = [3, 7]\nclass = Spam", fillcolor="#8ec7f0"] ;
173 -> 187 ;
188 [label="gini = 0.0\nsamples = 3\nvalue = [3, 0]\nclass = Non spam", fillcolor="#e58139"] ;
187 -> 188 ;
189 [label="gini = 0.0\nsamples = 7\nvalue = [0, 7]\nclass = Spam", fillcolor="#399de5"] ;
187 -> 189 ;
190 [label="capital_run_length_average <= 0.002\ngini = 0.342\nsamples = 32\nvalue = [7, 25]\nclass = Spam", fillcolor="#70b8ec"] ;
172 -> 190 ;
191 [label="you <= 0.165\ngini = 0.095\nsamples = 20\nvalue = [1, 19]\nclass = Spam", fillcolor="#43a2e6"] ;
190 -> 191 ;
192 [label="gini = 0.0\nsamples = 19\nvalue = [0, 19]\nclass = Spam", fillcolor="#399de5"] ;
191 -> 192 ;
193 [label="gini = 0.0\nsamples = 1\nvalue = [1, 0]\nclass = Non spam", fillcolor="#e58139"] ;
191 -> 193 ;
194 [label="your <= 0.042\ngini = 0.5\nsamples = 12\nvalue = [6, 6]\nclass = Non spam", fillcolor="#ffffff"] ;
190 -> 194 ;
195 [label="gini = 0.0\nsamples = 5\nvalue = [5, 0]\nclass = Non spam", fillcolor="#e58139"] ;
194 -> 195 ;
196 [label="re <= 0.037\ngini = 0.245\nsamples = 7\nvalue = [1, 6]\nclass = Spam", fillcolor="#5aade9"] ;
194 -> 196 ;
197 [label="gini = 0.0\nsamples = 6\nvalue = [0, 6]\nclass = Spam", fillcolor="#399de5"] ;
196 -> 197 ;
198 [label="gini = 0.0\nsamples = 1\nvalue = [1, 0]\nclass = Non spam", fillcolor="#e58139"] ;
196 -> 198 ;
199 [label="capital_run_length_total <= 0.001\ngini = 0.071\nsamples = 27\nvalue = [26, 1]\nclass = Non spam", fillcolor="#e68641"] ;
171 -> 199 ;
200 [label="gini = 0.0\nsamples = 1\nvalue = [0, 1]\nclass = Spam", fillcolor="#399de5"] ;
199 -> 200 ;
201 [label="gini = 0.0\nsamples = 26\nvalue = [26, 0]\nclass = Non spam", fillcolor="#e58139"] ;
199 -> 201 ;
202 [label="capital_run_length_average <= 0.001\ngini = 0.406\nsamples = 60\nvalue = [17, 43]\nclass = Spam", fillcolor="#87c4ef"] ;
2 -> 202 ;
203 [label="gini = 0.0\nsamples = 7\nvalue = [7, 0]\nclass = Non spam", fillcolor="#e58139"] ;
202 -> 203 ;
204 [label="edu <= 0.027\ngini = 0.306\nsamples = 53\nvalue = [10, 43]\nclass = Spam", fillcolor="#67b4eb"] ;
202 -> 204 ;
205 [label="hp <= 0.012\ngini = 0.187\nsamples = 48\nvalue = [5, 43]\nclass = Spam", fillcolor="#50a8e8"] ;
204 -> 205 ;
206 [label="( <= 0.042\ngini = 0.044\nsamples = 44\nvalue = [1, 43]\nclass = Spam", fillcolor="#3e9fe6"] ;
205 -> 206 ;
207 [label="gini = 0.0\nsamples = 41\nvalue = [0, 41]\nclass = Spam", fillcolor="#399de5"] ;
206 -> 207 ;
208 [label="your <= 0.003\ngini = 0.444\nsamples = 3\nvalue = [1, 2]\nclass = Spam", fillcolor="#9ccef2"] ;
206 -> 208 ;
209 [label="gini = 0.0\nsamples = 1\nvalue = [1, 0]\nclass = Non spam", fillcolor="#e58139"] ;
208 -> 209 ;
210 [label="gini = 0.0\nsamples = 2\nvalue = [0, 2]\nclass = Spam", fillcolor="#399de5"] ;
208 -> 210 ;
211 [label="gini = 0.0\nsamples = 4\nvalue = [4, 0]\nclass = Non spam", fillcolor="#e58139"] ;
205 -> 211 ;
212 [label="gini = 0.0\nsamples = 5\nvalue = [5, 0]\nclass = Non spam", fillcolor="#e58139"] ;
204 -> 212 ;
213 [label="george <= 0.005\ngini = 0.254\nsamples = 87\nvalue = [13, 74]\nclass = Spam", fillcolor="#5caeea"] ;
1 -> 213 ;
214 [label="make <= 0.116\ngini = 0.119\nsamples = 79\nvalue = [5, 74]\nclass = Spam", fillcolor="#46a4e7"] ;
213 -> 214 ;
215 [label="hp <= 0.099\ngini = 0.075\nsamples = 77\nvalue = [3, 74]\nclass = Spam", fillcolor="#41a1e6"] ;
214 -> 215 ;
216 [label="data <= 0.139\ngini = 0.051\nsamples = 76\nvalue = [2, 74]\nclass = Spam", fillcolor="#3ea0e6"] ;
215 -> 216 ;
217 [label="you <= 0.282\ngini = 0.026\nsamples = 75\nvalue = [1, 74]\nclass = Spam", fillcolor="#3c9ee5"] ;
216 -> 217 ;
218 [label="gini = 0.0\nsamples = 72\nvalue = [0, 72]\nclass = Spam", fillcolor="#399de5"] ;
217 -> 218 ;
219 [label="your <= 0.08\ngini = 0.444\nsamples = 3\nvalue = [1, 2]\nclass = Spam", fillcolor="#9ccef2"] ;
217 -> 219 ;
220 [label="gini = 0.0\nsamples = 2\nvalue = [0, 2]\nclass = Spam", fillcolor="#399de5"] ;
219 -> 220 ;
221 [label="gini = 0.0\nsamples = 1\nvalue = [1, 0]\nclass = Non spam", fillcolor="#e58139"] ;
219 -> 221 ;
222 [label="gini = 0.0\nsamples = 1\nvalue = [1, 0]\nclass = Non spam", fillcolor="#e58139"] ;
216 -> 222 ;
223 [label="gini = 0.0\nsamples = 1\nvalue = [1, 0]\nclass = Non spam", fillcolor="#e58139"] ;
215 -> 223 ;
224 [label="gini = 0.0\nsamples = 2\nvalue = [2, 0]\nclass = Non spam", fillcolor="#e58139"] ;
214 -> 224 ;
225 [label="gini = 0.0\nsamples = 8\nvalue = [8, 0]\nclass = Non spam", fillcolor="#e58139"] ;
213 -> 225 ;
226 [label="hp <= 0.019\ngini = 0.375\nsamples = 2204\nvalue = [550, 1654]\nclass = Spam", fillcolor="#7bbeee"] ;
0 -> 226 [labeldistance=2.5, labelangle=-45, headlabel="False"] ;
227 [label="edu <= 0.006\ngini = 0.302\nsamples = 2011\nvalue = [372, 1639]\nclass = Spam", fillcolor="#66b3eb"] ;
226 -> 227 ;
228 [label="capital_run_length_longest <= 0.001\ngini = 0.24\nsamples = 1895\nvalue = [264, 1631]\nclass = Spam", fillcolor="#59ade9"] ;
227 -> 228 ;
229 [label="free <= 0.0\ngini = 0.495\nsamples = 280\nvalue = [154, 126]\nclass = Non spam", fillcolor="#fae8db"] ;
228 -> 229 ;
230 [label="remove <= 0.01\ngini = 0.406\nsamples = 201\nvalue = [144, 57]\nclass = Non spam", fillcolor="#efb387"] ;
229 -> 230 ;
231 [label="business <= 0.037\ngini = 0.354\nsamples = 187\nvalue = [144, 43]\nclass = Non spam", fillcolor="#eda774"] ;
230 -> 231 ;
232 [label="! <= 0.033\ngini = 0.294\nsamples = 173\nvalue = [142, 31]\nclass = Non spam", fillcolor="#eb9d64"] ;
231 -> 232 ;
233 [label="email <= 0.188\ngini = 0.196\nsamples = 136\nvalue = [121, 15]\nclass = Non spam", fillcolor="#e89152"] ;
232 -> 233 ;
234 [label="our <= 0.007\ngini = 0.164\nsamples = 133\nvalue = [121, 12]\nclass = Non spam", fillcolor="#e88d4d"] ;
233 -> 234 ;
235 [label="! <= 0.001\ngini = 0.073\nsamples = 105\nvalue = [101, 4]\nclass = Non spam", fillcolor="#e68641"] ;
234 -> 235 ;
236 [label="gini = 0.0\nsamples = 1\nvalue = [0, 1]\nclass = Spam", fillcolor="#399de5"] ;
235 -> 236 ;
237 [label="mail <= 0.013\ngini = 0.056\nsamples = 104\nvalue = [101, 3]\nclass = Non spam", fillcolor="#e6853f"] ;
235 -> 237 ;
238 [label="! <= 0.025\ngini = 0.04\nsamples = 98\nvalue = [96, 2]\nclass = Non spam", fillcolor="#e6843d"] ;
237 -> 238 ;
239 [label="capital_run_length_average <= 0.001\ngini = 0.022\nsamples = 91\nvalue = [90, 1]\nclass = Non spam", fillcolor="#e5823b"] ;
238 -> 239 ;
240 [label="gini = 0.0\nsamples = 80\nvalue = [80, 0]\nclass = Non spam", fillcolor="#e58139"] ;
239 -> 240 ;
241 [label="capital_run_length_average <= 0.001\ngini = 0.165\nsamples = 11\nvalue = [10, 1]\nclass = Non spam", fillcolor="#e88e4d"] ;
239 -> 241 ;
242 [label="( <= 0.036\ngini = 0.5\nsamples = 2\nvalue = [1, 1]\nclass = Non spam", fillcolor="#ffffff"] ;
241 -> 242 ;
243 [label="gini = 0.0\nsamples = 1\nvalue = [0, 1]\nclass = Spam", fillcolor="#399de5"] ;
242 -> 243 ;
244 [label="gini = 0.0\nsamples = 1\nvalue = [1, 0]\nclass = Non spam", fillcolor="#e58139"] ;
242 -> 244 ;
245 [label="gini = 0.0\nsamples = 9\nvalue = [9, 0]\nclass = Non spam", fillcolor="#e58139"] ;
241 -> 245 ;
246 [label="capital_run_length_longest <= 0.0\ngini = 0.245\nsamples = 7\nvalue = [6, 1]\nclass = Non spam", fillcolor="#e9965a"] ;
238 -> 246 ;
247 [label="! <= 0.029\ngini = 0.5\nsamples = 2\nvalue = [1, 1]\nclass = Non spam", fillcolor="#ffffff"] ;
246 -> 247 ;
248 [label="gini = 0.0\nsamples = 1\nvalue = [0, 1]\nclass = Spam", fillcolor="#399de5"] ;
247 -> 248 ;
249 [label="gini = 0.0\nsamples = 1\nvalue = [1, 0]\nclass = Non spam", fillcolor="#e58139"] ;
247 -> 249 ;
250 [label="gini = 0.0\nsamples = 5\nvalue = [5, 0]\nclass = Non spam", fillcolor="#e58139"] ;
246 -> 250 ;
251 [label="! <= 0.005\ngini = 0.278\nsamples = 6\nvalue = [5, 1]\nclass = Non spam", fillcolor="#ea9a61"] ;
237 -> 251 ;
252 [label="gini = 0.0\nsamples = 1\nvalue = [0, 1]\nclass = Spam", fillcolor="#399de5"] ;
251 -> 252 ;
253 [label="gini = 0.0\nsamples = 5\nvalue = [5, 0]\nclass = Non spam", fillcolor="#e58139"] ;
251 -> 253 ;
254 [label="over <= 0.022\ngini = 0.408\nsamples = 28\nvalue = [20, 8]\nclass = Non spam", fillcolor="#efb388"] ;
234 -> 254 ;
255 [label="your <= 0.08\ngini = 0.32\nsamples = 25\nvalue = [20, 5]\nclass = Non spam", fillcolor="#eca06a"] ;
254 -> 255 ;
256 [label="our <= 0.563\ngini = 0.105\nsamples = 18\nvalue = [17, 1]\nclass = Non spam", fillcolor="#e78845"] ;
255 -> 256 ;
257 [label="gini = 0.0\nsamples = 17\nvalue = [17, 0]\nclass = Non spam", fillcolor="#e58139"] ;
256 -> 257 ;
258 [label="gini = 0.0\nsamples = 1\nvalue = [0, 1]\nclass = Spam", fillcolor="#399de5"] ;
256 -> 258 ;
259 [label="will <= 0.05\ngini = 0.49\nsamples = 7\nvalue = [3, 4]\nclass = Spam", fillcolor="#cee6f8"] ;
255 -> 259 ;
260 [label="capital_run_length_average <= 0.001\ngini = 0.375\nsamples = 4\nvalue = [3, 1]\nclass = Non spam", fillcolor="#eeab7b"] ;
259 -> 260 ;
261 [label="gini = 0.0\nsamples = 3\nvalue = [3, 0]\nclass = Non spam", fillcolor="#e58139"] ;
260 -> 261 ;
262 [label="gini = 0.0\nsamples = 1\nvalue = [0, 1]\nclass = Spam", fillcolor="#399de5"] ;
260 -> 262 ;
263 [label="gini = 0.0\nsamples = 3\nvalue = [0, 3]\nclass = Spam", fillcolor="#399de5"] ;
259 -> 263 ;
264 [label="gini = 0.0\nsamples = 3\nvalue = [0, 3]\nclass = Spam", fillcolor="#399de5"] ;
254 -> 264 ;
265 [label="gini = 0.0\nsamples = 3\nvalue = [0, 3]\nclass = Spam", fillcolor="#399de5"] ;
233 -> 265 ;
266 [label="you <= 0.124\ngini = 0.491\nsamples = 37\nvalue = [21, 16]\nclass = Non spam", fillcolor="#f9e1d0"] ;
232 -> 266 ;
267 [label="money <= 0.166\ngini = 0.266\nsamples = 19\nvalue = [16, 3]\nclass = Non spam", fillcolor="#ea995e"] ;
266 -> 267 ;
268 [label="capital_run_length_total <= 0.0\ngini = 0.198\nsamples = 18\nvalue = [16, 2]\nclass = Non spam", fillcolor="#e89152"] ;
267 -> 268 ;
269 [label="gini = 0.0\nsamples = 1\nvalue = [0, 1]\nclass = Spam", fillcolor="#399de5"] ;
268 -> 269 ;
270 [label="capital_run_length_total <= 0.0\ngini = 0.111\nsamples = 17\nvalue = [16, 1]\nclass = Non spam", fillcolor="#e78945"] ;
268 -> 270 ;
271 [label="capital_run_length_total <= 0.0\ngini = 0.278\nsamples = 6\nvalue = [5, 1]\nclass = Non spam", fillcolor="#ea9a61"] ;
270 -> 271 ;
272 [label="gini = 0.0\nsamples = 4\nvalue = [4, 0]\nclass = Non spam", fillcolor="#e58139"] ;
271 -> 272 ;
273 [label="! <= 0.047\ngini = 0.5\nsamples = 2\nvalue = [1, 1]\nclass = Non spam", fillcolor="#ffffff"] ;
271 -> 273 ;
274 [label="gini = 0.0\nsamples = 1\nvalue = [1, 0]\nclass = Non spam", fillcolor="#e58139"] ;
273 -> 274 ;
275 [label="gini = 0.0\nsamples = 1\nvalue = [0, 1]\nclass = Spam", fillcolor="#399de5"] ;
273 -> 275 ;
276 [label="gini = 0.0\nsamples = 11\nvalue = [11, 0]\nclass = Non spam", fillcolor="#e58139"] ;
270 -> 276 ;
277 [label="gini = 0.0\nsamples = 1\nvalue = [0, 1]\nclass = Spam", fillcolor="#399de5"] ;
267 -> 277 ;
278 [label="will <= 0.196\ngini = 0.401\nsamples = 18\nvalue = [5, 13]\nclass = Spam", fillcolor="#85c3ef"] ;
266 -> 278 ;
279 [label="! <= 0.268\ngini = 0.305\nsamples = 16\nvalue = [3, 13]\nclass = Spam", fillcolor="#67b4eb"] ;
278 -> 279 ;
280 [label="capital_run_length_total <= 0.0\ngini = 0.133\nsamples = 14\nvalue = [1, 13]\nclass = Spam", fillcolor="#48a5e7"] ;
279 -> 280 ;
281 [label="gini = 0.0\nsamples = 1\nvalue = [1, 0]\nclass = Non spam", fillcolor="#e58139"] ;
280 -> 281 ;
282 [label="gini = 0.0\nsamples = 13\nvalue = [0, 13]\nclass = Spam", fillcolor="#399de5"] ;
280 -> 282 ;
283 [label="gini = 0.0\nsamples = 2\nvalue = [2, 0]\nclass = Non spam", fillcolor="#e58139"] ;
279 -> 283 ;
284 [label="gini = 0.0\nsamples = 2\nvalue = [2, 0]\nclass = Non spam", fillcolor="#e58139"] ;
278 -> 284 ;
285 [label="you <= 0.08\ngini = 0.245\nsamples = 14\nvalue = [2, 12]\nclass = Spam", fillcolor="#5aade9"] ;
231 -> 285 ;
286 [label="all <= 0.178\ngini = 0.444\nsamples = 3\nvalue = [2, 1]\nclass = Non spam", fillcolor="#f2c09c"] ;
285 -> 286 ;
287 [label="gini = 0.0\nsamples = 2\nvalue = [2, 0]\nclass = Non spam", fillcolor="#e58139"] ;
286 -> 287 ;
288 [label="gini = 0.0\nsamples = 1\nvalue = [0, 1]\nclass = Spam", fillcolor="#399de5"] ;
286 -> 288 ;
289 [label="gini = 0.0\nsamples = 11\nvalue = [0, 11]\nclass = Spam", fillcolor="#399de5"] ;
285 -> 289 ;
290 [label="gini = 0.0\nsamples = 14\nvalue = [0, 14]\nclass = Spam", fillcolor="#399de5"] ;
230 -> 290 ;
291 [label="people <= 0.193\ngini = 0.221\nsamples = 79\nvalue = [10, 69]\nclass = Spam", fillcolor="#56abe9"] ;
229 -> 291 ;
292 [label="order <= 0.007\ngini = 0.186\nsamples = 77\nvalue = [8, 69]\nclass = Spam", fillcolor="#50a8e8"] ;
291 -> 292 ;
293 [label="over <= 0.242\ngini = 0.108\nsamples = 70\nvalue = [4, 66]\nclass = Spam", fillcolor="#45a3e7"] ;
292 -> 293 ;
294 [label="receive <= 0.481\ngini = 0.083\nsamples = 69\nvalue = [3, 66]\nclass = Spam", fillcolor="#42a1e6"] ;
293 -> 294 ;
295 [label="capital_run_length_longest <= 0.0\ngini = 0.058\nsamples = 67\nvalue = [2, 65]\nclass = Spam", fillcolor="#3fa0e6"] ;
294 -> 295 ;
296 [label="free <= 0.025\ngini = 0.298\nsamples = 11\nvalue = [2, 9]\nclass = Spam", fillcolor="#65b3eb"] ;
295 -> 296 ;
297 [label="gini = 0.0\nsamples = 1\nvalue = [1, 0]\nclass = Non spam", fillcolor="#e58139"] ;
296 -> 297 ;
298 [label="mail <= 0.062\ngini = 0.18\nsamples = 10\nvalue = [1, 9]\nclass = Spam", fillcolor="#4fa8e8"] ;
296 -> 298 ;
299 [label="gini = 0.0\nsamples = 9\nvalue = [0, 9]\nclass = Spam", fillcolor="#399de5"] ;
298 -> 299 ;
300 [label="gini = 0.0\nsamples = 1\nvalue = [1, 0]\nclass = Non spam", fillcolor="#e58139"] ;
298 -> 300 ;
301 [label="gini = 0.0\nsamples = 56\nvalue = [0, 56]\nclass = Spam", fillcolor="#399de5"] ;
295 -> 301 ;
302 [label="money <= 0.006\ngini = 0.5\nsamples = 2\nvalue = [1, 1]\nclass = Non spam", fillcolor="#ffffff"] ;
294 -> 302 ;
303 [label="gini = 0.0\nsamples = 1\nvalue = [1, 0]\nclass = Non spam", fillcolor="#e58139"] ;
302 -> 303 ;
304 [label="gini = 0.0\nsamples = 1\nvalue = [0, 1]\nclass = Spam", fillcolor="#399de5"] ;
302 -> 304 ;
305 [label="gini = 0.0\nsamples = 1\nvalue = [1, 0]\nclass = Non spam", fillcolor="#e58139"] ;
293 -> 305 ;
306 [label="all <= 0.05\ngini = 0.49\nsamples = 7\nvalue = [4, 3]\nclass = Non spam", fillcolor="#f8e0ce"] ;
292 -> 306 ;
307 [label="gini = 0.0\nsamples = 4\nvalue = [4, 0]\nclass = Non spam", fillcolor="#e58139"] ;
306 -> 307 ;
308 [label="gini = 0.0\nsamples = 3\nvalue = [0, 3]\nclass = Spam", fillcolor="#399de5"] ;
306 -> 308 ;
309 [label="gini = 0.0\nsamples = 2\nvalue = [2, 0]\nclass = Non spam", fillcolor="#e58139"] ;
291 -> 309 ;
310 [label="george <= 0.006\ngini = 0.127\nsamples = 1615\nvalue = [110, 1505]\nclass = Spam", fillcolor="#47a4e7"] ;
228 -> 310 ;
311 [label="meeting <= 0.025\ngini = 0.112\nsamples = 1598\nvalue = [95, 1503]\nclass = Spam", fillcolor="#46a3e7"] ;
310 -> 311 ;
312 [label="; <= 0.259\ngini = 0.1\nsamples = 1586\nvalue = [84, 1502]\nclass = Spam", fillcolor="#44a2e6"] ;
311 -> 312 ;
313 [label="hpl <= 0.026\ngini = 0.091\nsamples = 1577\nvalue = [75, 1502]\nclass = Spam", fillcolor="#43a2e6"] ;
312 -> 313 ;
314 [label="conference <= 0.031\ngini = 0.084\nsamples = 1571\nvalue = [69, 1502]\nclass = Spam", fillcolor="#42a2e6"] ;
313 -> 314 ;
315 [label="re <= 0.094\ngini = 0.078\nsamples = 1565\nvalue = [64, 1501]\nclass = Spam", fillcolor="#41a1e6"] ;
314 -> 315 ;
316 [label="will <= 0.365\ngini = 0.073\nsamples = 1558\nvalue = [59, 1499]\nclass = Spam", fillcolor="#41a1e6"] ;
315 -> 316 ;
317 [label="650 <= 0.068\ngini = 0.067\nsamples = 1551\nvalue = [54, 1497]\nclass = Spam", fillcolor="#40a1e6"] ;
316 -> 317 ;
318 [label="lab <= 0.01\ngini = 0.065\nsamples = 1549\nvalue = [52, 1497]\nclass = Spam", fillcolor="#40a0e6"] ;
317 -> 318 ;
319 [label="original <= 0.122\ngini = 0.063\nsamples = 1547\nvalue = [50, 1497]\nclass = Spam", fillcolor="#40a0e6"] ;
318 -> 319 ;
320 [label="capital_run_length_average <= 0.001\ngini = 0.06\nsamples = 1545\nvalue = [48, 1497]\nclass = Spam", fillcolor="#3fa0e6"] ;
319 -> 320 ;
321 [label="will <= 0.012\ngini = 0.337\nsamples = 42\nvalue = [9, 33]\nclass = Spam", fillcolor="#6fb8ec"] ;
320 -> 321 ;
322 [label="all <= 0.099\ngini = 0.496\nsamples = 11\nvalue = [6, 5]\nclass = Non spam", fillcolor="#fbeade"] ;
321 -> 322 ;
323 [label="all <= 0.038\ngini = 0.408\nsamples = 7\nvalue = [2, 5]\nclass = Spam", fillcolor="#88c4ef"] ;
322 -> 323 ;
324 [label="hp <= 0.009\ngini = 0.444\nsamples = 3\nvalue = [2, 1]\nclass = Non spam", fillcolor="#f2c09c"] ;
323 -> 324 ;
325 [label="gini = 0.0\nsamples = 1\nvalue = [1, 0]\nclass = Non spam", fillcolor="#e58139"] ;
324 -> 325 ;
326 [label="gini = 0.5\nsamples = 2\nvalue = [1, 1]\nclass = Non spam", fillcolor="#ffffff"] ;
324 -> 326 ;
327 [label="gini = 0.0\nsamples = 4\nvalue = [0, 4]\nclass = Spam", fillcolor="#399de5"] ;
323 -> 327 ;
328 [label="gini = 0.0\nsamples = 4\nvalue = [4, 0]\nclass = Non spam", fillcolor="#e58139"] ;
322 -> 328 ;
329 [label="1999 <= 0.049\ngini = 0.175\nsamples = 31\nvalue = [3, 28]\nclass = Spam", fillcolor="#4ea8e8"] ;
321 -> 329 ;
330 [label="receive <= 0.188\ngini = 0.067\nsamples = 29\nvalue = [1, 28]\nclass = Spam", fillcolor="#40a0e6"] ;
329 -> 330 ;
331 [label="gini = 0.0\nsamples = 28\nvalue = [0, 28]\nclass = Spam", fillcolor="#399de5"] ;
330 -> 331 ;
332 [label="gini = 0.0\nsamples = 1\nvalue = [1, 0]\nclass = Non spam", fillcolor="#e58139"] ;
330 -> 332 ;
333 [label="gini = 0.0\nsamples = 2\nvalue = [2, 0]\nclass = Non spam", fillcolor="#e58139"] ;
329 -> 333 ;
334 [label="our <= 0.0\ngini = 0.051\nsamples = 1503\nvalue = [39, 1464]\nclass = Spam", fillcolor="#3ea0e6"] ;
320 -> 334 ;
335 [label="project <= 0.004\ngini = 0.132\nsamples = 422\nvalue = [30, 392]\nclass = Spam", fillcolor="#48a4e7"] ;
334 -> 335 ;
336 [label="$ <= 0.008\ngini = 0.121\nsamples = 418\nvalue = [27, 391]\nclass = Spam", fillcolor="#47a4e7"] ;
335 -> 336 ;
337 [label="! <= 0.008\ngini = 0.221\nsamples = 198\nvalue = [25, 173]\nclass = Spam", fillcolor="#56abe9"] ;
336 -> 337 ;
338 [label="remove <= 0.013\ngini = 0.402\nsamples = 61\nvalue = [17, 44]\nclass = Spam", fillcolor="#86c3ef"] ;
337 -> 338 ;
339 [label="; <= 0.014\ngini = 0.498\nsamples = 32\nvalue = [15, 17]\nclass = Spam", fillcolor="#e8f3fc"] ;
338 -> 339 ;
340 [label="will <= 0.008\ngini = 0.454\nsamples = 23\nvalue = [15, 8]\nclass = Non spam", fillcolor="#f3c4a3"] ;
339 -> 340 ;
341 [label="email <= 0.017\ngini = 0.497\nsamples = 13\nvalue = [6, 7]\nclass = Spam", fillcolor="#e3f1fb"] ;
340 -> 341 ;
342 [label="capital_run_length_longest <= 0.002\ngini = 0.375\nsamples = 8\nvalue = [2, 6]\nclass = Spam", fillcolor="#7bbeee"] ;
341 -> 342 ;
343 [label="gini = 0.0\nsamples = 2\nvalue = [2, 0]\nclass = Non spam", fillcolor="#e58139"] ;
342 -> 343 ;
344 [label="gini = 0.0\nsamples = 6\nvalue = [0, 6]\nclass = Spam", fillcolor="#399de5"] ;
342 -> 344 ;
345 [label="! <= 0.008\ngini = 0.32\nsamples = 5\nvalue = [4, 1]\nclass = Non spam", fillcolor="#eca06a"] ;
341 -> 345 ;
346 [label="gini = 0.0\nsamples = 4\nvalue = [4, 0]\nclass = Non spam", fillcolor="#e58139"] ;
345 -> 346 ;
347 [label="gini = 0.0\nsamples = 1\nvalue = [0, 1]\nclass = Spam", fillcolor="#399de5"] ;
345 -> 347 ;
348 [label="650 <= 0.03\ngini = 0.18\nsamples = 10\nvalue = [9, 1]\nclass = Non spam", fillcolor="#e88f4f"] ;
340 -> 348 ;
349 [label="gini = 0.0\nsamples = 9\nvalue = [9, 0]\nclass = Non spam", fillcolor="#e58139"] ;
348 -> 349 ;
350 [label="gini = 0.0\nsamples = 1\nvalue = [0, 1]\nclass = Spam", fillcolor="#399de5"] ;
348 -> 350 ;
351 [label="gini = 0.0\nsamples = 9\nvalue = [0, 9]\nclass = Spam", fillcolor="#399de5"] ;
339 -> 351 ;
352 [label="! <= 0.008\ngini = 0.128\nsamples = 29\nvalue = [2, 27]\nclass = Spam", fillcolor="#48a4e7"] ;
338 -> 352 ;
353 [label="gini = 0.0\nsamples = 26\nvalue = [0, 26]\nclass = Spam", fillcolor="#399de5"] ;
352 -> 353 ;
354 [label="! <= 0.008\ngini = 0.444\nsamples = 3\nvalue = [2, 1]\nclass = Non spam", fillcolor="#f2c09c"] ;
352 -> 354 ;
355 [label="gini = 0.0\nsamples = 2\nvalue = [2, 0]\nclass = Non spam", fillcolor="#e58139"] ;
354 -> 355 ;
356 [label="gini = 0.0\nsamples = 1\nvalue = [0, 1]\nclass = Spam", fillcolor="#399de5"] ;
354 -> 356 ;
357 [label="address <= 0.186\ngini = 0.11\nsamples = 137\nvalue = [8, 129]\nclass = Spam", fillcolor="#45a3e7"] ;
337 -> 357 ;
358 [label="re <= 0.014\ngini = 0.098\nsamples = 136\nvalue = [7, 129]\nclass = Spam", fillcolor="#44a2e6"] ;
357 -> 358 ;
359 [label="capital_run_length_average <= 0.001\ngini = 0.062\nsamples = 124\nvalue = [4, 120]\nclass = Spam", fillcolor="#40a0e6"] ;
358 -> 359 ;
360 [label="email <= 0.032\ngini = 0.5\nsamples = 2\nvalue = [1, 1]\nclass = Non spam", fillcolor="#ffffff"] ;
359 -> 360 ;
361 [label="gini = 0.0\nsamples = 1\nvalue = [1, 0]\nclass = Non spam", fillcolor="#e58139"] ;
360 -> 361 ;
362 [label="gini = 0.0\nsamples = 1\nvalue = [0, 1]\nclass = Spam", fillcolor="#399de5"] ;
360 -> 362 ;
363 [label="1999 <= 0.214\ngini = 0.048\nsamples = 122\nvalue = [3, 119]\nclass = Spam", fillcolor="#3e9fe6"] ;
359 -> 363 ;
364 [label="all <= 0.105\ngini = 0.033\nsamples = 120\nvalue = [2, 118]\nclass = Spam", fillcolor="#3c9fe5"] ;
363 -> 364 ;
365 [label="gini = 0.0\nsamples = 95\nvalue = [0, 95]\nclass = Spam", fillcolor="#399de5"] ;
364 -> 365 ;
366 [label="people <= 0.058\ngini = 0.147\nsamples = 25\nvalue = [2, 23]\nclass = Spam", fillcolor="#4aa6e7"] ;
364 -> 366 ;
367 [label="make <= 0.15\ngini = 0.08\nsamples = 24\nvalue = [1, 23]\nclass = Spam", fillcolor="#42a1e6"] ;
366 -> 367 ;
368 [label="gini = 0.0\nsamples = 23\nvalue = [0, 23]\nclass = Spam", fillcolor="#399de5"] ;
367 -> 368 ;
369 [label="gini = 0.0\nsamples = 1\nvalue = [1, 0]\nclass = Non spam", fillcolor="#e58139"] ;
367 -> 369 ;
370 [label="gini = 0.0\nsamples = 1\nvalue = [1, 0]\nclass = Non spam", fillcolor="#e58139"] ;
366 -> 370 ;
371 [label="! <= 0.032\ngini = 0.5\nsamples = 2\nvalue = [1, 1]\nclass = Non spam", fillcolor="#ffffff"] ;
363 -> 371 ;
372 [label="gini = 0.0\nsamples = 1\nvalue = [1, 0]\nclass = Non spam", fillcolor="#e58139"] ;
371 -> 372 ;
373 [label="gini = 0.0\nsamples = 1\nvalue = [0, 1]\nclass = Spam", fillcolor="#399de5"] ;
371 -> 373 ;
374 [label="re <= 0.048\ngini = 0.375\nsamples = 12\nvalue = [3, 9]\nclass = Spam", fillcolor="#7bbeee"] ;
358 -> 374 ;
375 [label="you <= 0.099\ngini = 0.375\nsamples = 4\nvalue = [3, 1]\nclass = Non spam", fillcolor="#eeab7b"] ;
374 -> 375 ;
376 [label="gini = 0.0\nsamples = 1\nvalue = [0, 1]\nclass = Spam", fillcolor="#399de5"] ;
375 -> 376 ;
377 [label="gini = 0.0\nsamples = 3\nvalue = [3, 0]\nclass = Non spam", fillcolor="#e58139"] ;
375 -> 377 ;
378 [label="gini = 0.0\nsamples = 8\nvalue = [0, 8]\nclass = Spam", fillcolor="#399de5"] ;
374 -> 378 ;
379 [label="gini = 0.0\nsamples = 1\nvalue = [1, 0]\nclass = Non spam", fillcolor="#e58139"] ;
357 -> 379 ;
380 [label="people <= 0.313\ngini = 0.018\nsamples = 220\nvalue = [2, 218]\nclass = Spam", fillcolor="#3b9ee5"] ;
336 -> 380 ;
381 [label="1999 <= 0.064\ngini = 0.009\nsamples = 217\nvalue = [1, 216]\nclass = Spam", fillcolor="#3a9de5"] ;
380 -> 381 ;
382 [label="gini = 0.0\nsamples = 207\nvalue = [0, 207]\nclass = Spam", fillcolor="#399de5"] ;
381 -> 382 ;
383 [label="( <= 0.008\ngini = 0.18\nsamples = 10\nvalue = [1, 9]\nclass = Spam", fillcolor="#4fa8e8"] ;
381 -> 383 ;
384 [label="gini = 0.0\nsamples = 1\nvalue = [1, 0]\nclass = Non spam", fillcolor="#e58139"] ;
383 -> 384 ;
385 [label="gini = 0.0\nsamples = 9\nvalue = [0, 9]\nclass = Spam", fillcolor="#399de5"] ;
383 -> 385 ;
386 [label="capital_run_length_total <= 0.005\ngini = 0.444\nsamples = 3\nvalue = [1, 2]\nclass = Spam", fillcolor="#9ccef2"] ;
380 -> 386 ;
387 [label="gini = 0.0\nsamples = 1\nvalue = [0, 1]\nclass = Spam", fillcolor="#399de5"] ;
386 -> 387 ;
388 [label="gini = 0.5\nsamples = 2\nvalue = [1, 1]\nclass = Non spam", fillcolor="#ffffff"] ;
386 -> 388 ;
389 [label="remove <= 0.019\ngini = 0.375\nsamples = 4\nvalue = [3, 1]\nclass = Non spam", fillcolor="#eeab7b"] ;
335 -> 389 ;
390 [label="gini = 0.0\nsamples = 3\nvalue = [3, 0]\nclass = Non spam", fillcolor="#e58139"] ;
389 -> 390 ;
391 [label="gini = 0.0\nsamples = 1\nvalue = [0, 1]\nclass = Spam", fillcolor="#399de5"] ;
389 -> 391 ;
392 [label="george <= 0.002\ngini = 0.017\nsamples = 1081\nvalue = [9, 1072]\nclass = Spam", fillcolor="#3b9ee5"] ;
334 -> 392 ;
393 [label="1999 <= 0.013\ngini = 0.015\nsamples = 1080\nvalue = [8, 1072]\nclass = Spam", fillcolor="#3a9ee5"] ;
392 -> 393 ;
394 [label="your <= 0.0\ngini = 0.01\nsamples = 1024\nvalue = [5, 1019]\nclass = Spam", fillcolor="#3a9de5"] ;
393 -> 394 ;
395 [label="email <= 0.085\ngini = 0.063\nsamples = 61\nvalue = [2, 59]\nclass = Spam", fillcolor="#40a0e6"] ;
394 -> 395 ;
396 [label="you <= 0.142\ngini = 0.033\nsamples = 59\nvalue = [1, 58]\nclass = Spam", fillcolor="#3c9fe5"] ;
395 -> 396 ;
397 [label="gini = 0.0\nsamples = 52\nvalue = [0, 52]\nclass = Spam", fillcolor="#399de5"] ;
396 -> 397 ;
398 [label="! <= 0.004\ngini = 0.245\nsamples = 7\nvalue = [1, 6]\nclass = Spam", fillcolor="#5aade9"] ;
396 -> 398 ;
399 [label="gini = 0.0\nsamples = 1\nvalue = [1, 0]\nclass = Non spam", fillcolor="#e58139"] ;
398 -> 399 ;
400 [label="gini = 0.0\nsamples = 6\nvalue = [0, 6]\nclass = Spam", fillcolor="#399de5"] ;
398 -> 400 ;
401 [label="( <= 0.016\ngini = 0.5\nsamples = 2\nvalue = [1, 1]\nclass = Non spam", fillcolor="#ffffff"] ;
395 -> 401 ;
402 [label="gini = 0.0\nsamples = 1\nvalue = [1, 0]\nclass = Non spam", fillcolor="#e58139"] ;
401 -> 402 ;
403 [label="gini = 0.0\nsamples = 1\nvalue = [0, 1]\nclass = Spam", fillcolor="#399de5"] ;
401 -> 403 ;
404 [label="your <= 0.345\ngini = 0.006\nsamples = 963\nvalue = [3, 960]\nclass = Spam", fillcolor="#3a9de5"] ;
394 -> 404 ;
405 [label="receive <= 0.215\ngini = 0.004\nsamples = 939\nvalue = [2, 937]\nclass = Spam", fillcolor="#399de5"] ;
404 -> 405 ;
406 [label="internet <= 0.042\ngini = 0.002\nsamples = 901\nvalue = [1, 900]\nclass = Spam", fillcolor="#399de5"] ;
405 -> 406 ;
407 [label="gini = 0.0\nsamples = 794\nvalue = [0, 794]\nclass = Spam", fillcolor="#399de5"] ;
406 -> 407 ;
408 [label="internet <= 0.043\ngini = 0.019\nsamples = 107\nvalue = [1, 106]\nclass = Spam", fillcolor="#3b9ee5"] ;
406 -> 408 ;
409 [label="pm <= 0.021\ngini = 0.5\nsamples = 2\nvalue = [1, 1]\nclass = Non spam", fillcolor="#ffffff"] ;
408 -> 409 ;
410 [label="gini = 0.0\nsamples = 1\nvalue = [1, 0]\nclass = Non spam", fillcolor="#e58139"] ;
409 -> 410 ;
411 [label="gini = 0.0\nsamples = 1\nvalue = [0, 1]\nclass = Spam", fillcolor="#399de5"] ;
409 -> 411 ;
412 [label="gini = 0.0\nsamples = 105\nvalue = [0, 105]\nclass = Spam", fillcolor="#399de5"] ;
408 -> 412 ;
413 [label="$ <= 0.04\ngini = 0.051\nsamples = 38\nvalue = [1, 37]\nclass = Spam", fillcolor="#3ea0e6"] ;
405 -> 413 ;
414 [label="gini = 0.0\nsamples = 37\nvalue = [0, 37]\nclass = Spam", fillcolor="#399de5"] ;
413 -> 414 ;
415 [label="gini = 0.0\nsamples = 1\nvalue = [1, 0]\nclass = Non spam", fillcolor="#e58139"] ;
413 -> 415 ;
416 [label="your <= 0.347\ngini = 0.08\nsamples = 24\nvalue = [1, 23]\nclass = Spam", fillcolor="#42a1e6"] ;
404 -> 416 ;
417 [label="gini = 0.0\nsamples = 1\nvalue = [1, 0]\nclass = Non spam", fillcolor="#e58139"] ;
416 -> 417 ;
418 [label="gini = 0.0\nsamples = 23\nvalue = [0, 23]\nclass = Spam", fillcolor="#399de5"] ;
416 -> 418 ;
419 [label="capital_run_length_longest <= 0.002\ngini = 0.101\nsamples = 56\nvalue = [3, 53]\nclass = Spam", fillcolor="#44a3e6"] ;
393 -> 419 ;
420 [label="our <= 0.041\ngini = 0.444\nsamples = 3\nvalue = [2, 1]\nclass = Non spam", fillcolor="#f2c09c"] ;
419 -> 420 ;
421 [label="gini = 0.0\nsamples = 2\nvalue = [2, 0]\nclass = Non spam", fillcolor="#e58139"] ;
420 -> 421 ;
422 [label="gini = 0.0\nsamples = 1\nvalue = [0, 1]\nclass = Spam", fillcolor="#399de5"] ;
420 -> 422 ;
423 [label="3d <= 0.004\ngini = 0.037\nsamples = 53\nvalue = [1, 52]\nclass = Spam", fillcolor="#3d9fe6"] ;
419 -> 423 ;
424 [label="gini = 0.0\nsamples = 51\nvalue = [0, 51]\nclass = Spam", fillcolor="#399de5"] ;
423 -> 424 ;
425 [label="$ <= 0.062\ngini = 0.5\nsamples = 2\nvalue = [1, 1]\nclass = Non spam", fillcolor="#ffffff"] ;
423 -> 425 ;
426 [label="gini = 0.0\nsamples = 1\nvalue = [1, 0]\nclass = Non spam", fillcolor="#e58139"] ;
425 -> 426 ;
427 [label="gini = 0.0\nsamples = 1\nvalue = [0, 1]\nclass = Spam", fillcolor="#399de5"] ;
425 -> 427 ;
428 [label="gini = 0.0\nsamples = 1\nvalue = [1, 0]\nclass = Non spam", fillcolor="#e58139"] ;
392 -> 428 ;
429 [label="gini = 0.0\nsamples = 2\nvalue = [2, 0]\nclass = Non spam", fillcolor="#e58139"] ;
319 -> 429 ;
430 [label="gini = 0.0\nsamples = 2\nvalue = [2, 0]\nclass = Non spam", fillcolor="#e58139"] ;
318 -> 430 ;
431 [label="gini = 0.0\nsamples = 2\nvalue = [2, 0]\nclass = Non spam", fillcolor="#e58139"] ;
317 -> 431 ;
432 [label="remove <= 0.043\ngini = 0.408\nsamples = 7\nvalue = [5, 2]\nclass = Non spam", fillcolor="#efb388"] ;
316 -> 432 ;
433 [label="gini = 0.0\nsamples = 5\nvalue = [5, 0]\nclass = Non spam", fillcolor="#e58139"] ;
432 -> 433 ;
434 [label="gini = 0.0\nsamples = 2\nvalue = [0, 2]\nclass = Spam", fillcolor="#399de5"] ;
432 -> 434 ;
435 [label="free <= 0.034\ngini = 0.408\nsamples = 7\nvalue = [5, 2]\nclass = Non spam", fillcolor="#efb388"] ;
315 -> 435 ;
436 [label="gini = 0.0\nsamples = 5\nvalue = [5, 0]\nclass = Non spam", fillcolor="#e58139"] ;
435 -> 436 ;
437 [label="gini = 0.0\nsamples = 2\nvalue = [0, 2]\nclass = Spam", fillcolor="#399de5"] ;
435 -> 437 ;
438 [label="! <= 0.018\ngini = 0.278\nsamples = 6\nvalue = [5, 1]\nclass = Non spam", fillcolor="#ea9a61"] ;
314 -> 438 ;
439 [label="gini = 0.0\nsamples = 5\nvalue = [5, 0]\nclass = Non spam", fillcolor="#e58139"] ;
438 -> 439 ;
440 [label="gini = 0.0\nsamples = 1\nvalue = [0, 1]\nclass = Spam", fillcolor="#399de5"] ;
438 -> 440 ;
441 [label="gini = 0.0\nsamples = 6\nvalue = [6, 0]\nclass = Non spam", fillcolor="#e58139"] ;
313 -> 441 ;
442 [label="gini = 0.0\nsamples = 9\nvalue = [9, 0]\nclass = Non spam", fillcolor="#e58139"] ;
312 -> 442 ;
443 [label="( <= 0.047\ngini = 0.153\nsamples = 12\nvalue = [11, 1]\nclass = Non spam", fillcolor="#e78c4b"] ;
311 -> 443 ;
444 [label="gini = 0.0\nsamples = 11\nvalue = [11, 0]\nclass = Non spam", fillcolor="#e58139"] ;
443 -> 444 ;
445 [label="gini = 0.0\nsamples = 1\nvalue = [0, 1]\nclass = Spam", fillcolor="#399de5"] ;
443 -> 445 ;
446 [label="order <= 0.057\ngini = 0.208\nsamples = 17\nvalue = [15, 2]\nclass = Non spam", fillcolor="#e89253"] ;
310 -> 446 ;
447 [label="gini = 0.0\nsamples = 14\nvalue = [14, 0]\nclass = Non spam", fillcolor="#e58139"] ;
446 -> 447 ;
448 [label="your <= 0.234\ngini = 0.444\nsamples = 3\nvalue = [1, 2]\nclass = Spam", fillcolor="#9ccef2"] ;
446 -> 448 ;
449 [label="gini = 0.0\nsamples = 2\nvalue = [0, 2]\nclass = Spam", fillcolor="#399de5"] ;
448 -> 449 ;
450 [label="gini = 0.0\nsamples = 1\nvalue = [1, 0]\nclass = Non spam", fillcolor="#e58139"] ;
448 -> 450 ;
451 [label="$ <= 0.038\ngini = 0.128\nsamples = 116\nvalue = [108, 8]\nclass = Non spam", fillcolor="#e78a48"] ;
227 -> 451 ;
452 [label="technology <= 0.051\ngini = 0.069\nsamples = 111\nvalue = [107, 4]\nclass = Non spam", fillcolor="#e68640"] ;
451 -> 452 ;
453 [label="report <= 0.035\ngini = 0.036\nsamples = 109\nvalue = [107, 2]\nclass = Non spam", fillcolor="#e5833d"] ;
452 -> 453 ;
454 [label="labs <= 0.049\ngini = 0.018\nsamples = 108\nvalue = [107, 1]\nclass = Non spam", fillcolor="#e5823b"] ;
453 -> 454 ;
455 [label="gini = 0.0\nsamples = 105\nvalue = [105, 0]\nclass = Non spam", fillcolor="#e58139"] ;
454 -> 455 ;
456 [label="labs <= 0.065\ngini = 0.444\nsamples = 3\nvalue = [2, 1]\nclass = Non spam", fillcolor="#f2c09c"] ;
454 -> 456 ;
457 [label="gini = 0.0\nsamples = 1\nvalue = [0, 1]\nclass = Spam", fillcolor="#399de5"] ;
456 -> 457 ;
458 [label="gini = 0.0\nsamples = 2\nvalue = [2, 0]\nclass = Non spam", fillcolor="#e58139"] ;
456 -> 458 ;
459 [label="gini = 0.0\nsamples = 1\nvalue = [0, 1]\nclass = Spam", fillcolor="#399de5"] ;
453 -> 459 ;
460 [label="gini = 0.0\nsamples = 2\nvalue = [0, 2]\nclass = Spam", fillcolor="#399de5"] ;
452 -> 460 ;
461 [label="conference <= 0.008\ngini = 0.32\nsamples = 5\nvalue = [1, 4]\nclass = Spam", fillcolor="#6ab6ec"] ;
451 -> 461 ;
462 [label="gini = 0.0\nsamples = 4\nvalue = [0, 4]\nclass = Spam", fillcolor="#399de5"] ;
461 -> 462 ;
463 [label="gini = 0.0\nsamples = 1\nvalue = [1, 0]\nclass = Non spam", fillcolor="#e58139"] ;
461 -> 463 ;
464 [label="free <= 0.032\ngini = 0.143\nsamples = 193\nvalue = [178, 15]\nclass = Non spam", fillcolor="#e78c4a"] ;
226 -> 464 ;
465 [label="capital_run_length_total <= 0.144\ngini = 0.054\nsamples = 181\nvalue = [176, 5]\nclass = Non spam", fillcolor="#e6853f"] ;
464 -> 465 ;
466 [label="remove <= 0.071\ngini = 0.022\nsamples = 178\nvalue = [176, 2]\nclass = Non spam", fillcolor="#e5823b"] ;
465 -> 466 ;
467 [label="capital_run_length_longest <= 0.0\ngini = 0.011\nsamples = 176\nvalue = [175, 1]\nclass = Non spam", fillcolor="#e5823a"] ;
466 -> 467 ;
468 [label="hpl <= 0.013\ngini = 0.5\nsamples = 2\nvalue = [1, 1]\nclass = Non spam", fillcolor="#ffffff"] ;
467 -> 468 ;
469 [label="gini = 0.0\nsamples = 1\nvalue = [1, 0]\nclass = Non spam", fillcolor="#e58139"] ;
468 -> 469 ;
470 [label="gini = 0.0\nsamples = 1\nvalue = [0, 1]\nclass = Spam", fillcolor="#399de5"] ;
468 -> 470 ;
471 [label="gini = 0.0\nsamples = 174\nvalue = [174, 0]\nclass = Non spam", fillcolor="#e58139"] ;
467 -> 471 ;
472 [label="capital_run_length_longest <= 0.006\ngini = 0.5\nsamples = 2\nvalue = [1, 1]\nclass = Non spam", fillcolor="#ffffff"] ;
466 -> 472 ;
473 [label="gini = 0.0\nsamples = 1\nvalue = [1, 0]\nclass = Non spam", fillcolor="#e58139"] ;
472 -> 473 ;
474 [label="gini = 0.0\nsamples = 1\nvalue = [0, 1]\nclass = Spam", fillcolor="#399de5"] ;
472 -> 474 ;
475 [label="gini = 0.0\nsamples = 3\nvalue = [0, 3]\nclass = Spam", fillcolor="#399de5"] ;
465 -> 475 ;
476 [label="1999 <= 0.127\ngini = 0.278\nsamples = 12\nvalue = [2, 10]\nclass = Spam", fillcolor="#61b1ea"] ;
464 -> 476 ;
477 [label="will <= 0.066\ngini = 0.165\nsamples = 11\nvalue = [1, 10]\nclass = Spam", fillcolor="#4da7e8"] ;
476 -> 477 ;
478 [label="gini = 0.0\nsamples = 10\nvalue = [0, 10]\nclass = Spam", fillcolor="#399de5"] ;
477 -> 478 ;
479 [label="gini = 0.0\nsamples = 1\nvalue = [1, 0]\nclass = Non spam", fillcolor="#e58139"] ;
477 -> 479 ;
480 [label="gini = 0.0\nsamples = 1\nvalue = [1, 0]\nclass = Non spam", fillcolor="#e58139"] ;
476 -> 480 ;
}